-0.052976430339107074,-0.04217621635401042,0.013384657621278592,0.07881597082754337,0.014562523216657172,0.038517586396923056,-0.06605186258226392,-2.092561855498304E-4,0.03538255967601965,-0.018100640462300074,-0.0559983358774821,-0.01801406668286748,
-0.07546343878013856,-0.04347420719119982,-0.06819942444585855,0.07064151591567668,0.02417203227721021,-0.0281350986885589,0.028790231576406852,-0.06318720903081865,0.037759810422267545,-0.03752025638867155,0.07385014601276911,-0.04743385647768409,
0.04136334279954673,0.018513617492678824,-0.029154994211985807,-0.07096036826534376,0.02971721898021555,0.04955041304840728,-0.008917281765180474,0.03173713301621017,-0.04365145428924956,0.07273252715308935,0.055515330752881495,0.043837473418715675,
0.06698136340268417,-0.0666309856703133,-0.06337076160135992,-0.06507892415670775,0.004012290735807597,-0.06950824478108086,-0.019709719886982557,-0.05732052205635705,0.010268933874618358,0.030917891799271804,0.030003154046800526,-0.07778923538214236,
0.08256066977916786,-0.05331480602231416,0.07344706815450704,0.06141671150488774,-0.04696201318862001,-0.011089252769811167,0.05709345098698661,0.03513862793782495,-0.024241998510733276,-0.037151494091169614,-0.004136034196669566,-0.05833513583661004,
0.033777049898825226,-0.06581172870355284,-0.058852311696961826,-0.06688589928722918,-0.04144402887811425,-0.024552810275663917,0.06206537776955644,-0.017388684280555733,0.001803698050609051,-0.006344837511553916,0.04164604983062979,0.059461022321772514,
